solver_type L2R_L2LOSS_SVC
nr_class 25
label 8 17 4 6 9 22 23 1 10 15 11 19 7 12 0 20 13 16 2 5 3 24 18 21 14
nr_feature 9
bias 0.000000000000000
w
0.1208266674458549 0.8801780324713420 0.05236373701043662 -0.4232303311139789 0.8764025197266508 -0.2942369206704438 -0.09287990045617295 -0.7559137934830467 -1.514160145666355 -0.4545247179111804 -1.507783415400390 -0.6801041363445651 0.8509878722532642 0.2018816230996061 -0.1592150053997526 -0.03167691971946515 0.6894605635805033 -0.5957378279862372 -0.4272188369925418 -0.2592874422585056 1.014005974237973 0.1169722750551160 -0.2619663337058902 -0.1769707441347302 0.2018816230996070 
0.05881616501172850 0.02826869053462025 -0.01186896313836258 -0.004194407576437478 0.05703483588406941 0.1231757218029295 0.1124248596227132 -0.05663483214568983 0.03979928041035943 -0.002228317444726175 -0.06773698673436584 0.02640007213451621 0.05789742378106767 -0.009264422012314987 -0.04097230293460777 -0.004396800195744012 0.01597766747152110 -0.03323285290630552 -0.05809571383902054 -0.005481565177914285 0.2206075347772398 0.03831166027883322 -0.002577725369665536 -0.004197946351395139 -0.009264422012314980 
-1.181831682199513 0.5689212944762063 -0.04796472449412662 -0.4192557621509237 -0.2083488828321151 0.9329723993743506 0.9949308483543840 -1.230440529663395 2.087177014808769 -0.4471383754465207 -0.2766004555105846 1.015987595702952 -0.2451900113488494 -0.5529028038860802 -0.03294581756596957 -0.3818926369807187 0.4314477486740080 -0.08797157434204939 -1.083724492001140 -0.2693182954060557 -1.572560137523341 0.3843797131177990 -0.2324241067994098 0.8576172403443209 -0.5529028038860780 
-0.005188931707511552 0.04002451997030264 -0.01002393987790955 -0.001555183840711727 -0.001042584003200096 -0.004637911860428226 -0.003335195312026019 -0.01482293225255190 -0.004188151778041989 -0.0001332313313324364 -1.664144542646733e-06 -0.002867239406657426 -0.0001969289283141462 -0.005591671346934451 -0.01115860399352764 -0.002681687538583137 0.02131579230062040 -2.411836467143059e-05 -0.01257459761158463 -0.001336762110483794 0.03164166125271325 0.05001475748633793 2.734274485130289e-05 0.04178233299206721 -0.005591671346934448 
0.05503060781490035 -0.2674084935146324 -0.3444670740744620 -0.1038788602053899 0.1894096415457804 -0.2687090458670252 -0.08806826621008731 -0.3245456555918964 0.03961421360248756 -0.1146456349018795 0.4760077687870952 -0.5537851323332393 0.1608947494643800 -1.301133261696281 -0.05675480931953640 -0.8079733834192716 -0.2272586985412858 -0.1494811672822530 -0.6650115092002002 -0.06124491516938965 -1.472016508622091 -0.09547490325462193 -0.07346057287231665 -0.5652486946159364 -1.301133261696275 
-4.778661578570979 -1.231182003084551 -0.5514638429411425 -0.5670705776355619 -0.2393075439086397 -2.055931555733475 -0.8627458211312076 -0.6016118188467239 -0.9750067547078949 -0.6609174694915279 -1.264331460313722 -1.258191675531857 -0.009937753912546643 0.2427425912292632 -0.1334771664815976 -0.3367040072726278 -1.604042403041392 -1.036126336385107 0.2835296215985363 -0.6666777903292569 -0.04385506092444627 -1.340727849183840 -0.8137092193829111 -0.7322144092228860 0.2427425912292679 
2.888173624130146 -0.8916448207683505 0.5228596758153408 -0.2851989860663123 -2.628737957288990 0.2364872977018273 -1.500905939189761 -0.6196442910307810 -1.575691342190193 -0.4760442813715644 -1.484266287514562 -0.7786281567700327 -2.800739359794412 -0.09045213989598178 0.3461015761056860 -0.3583442221072650 -1.126093419504715 -0.6779138619778087 -0.7923789819767294 -0.4400298012570900 1.309366778928749 -0.6479775645408776 -0.5477560556608496 -0.3651743173051381 -0.09045213989597670 
-1.586388502984888 -0.2323973864238127 -2.295729006313970 -1.522230282086676 -0.6886098706351376 -0.07512517027294426 0.1519640024263242 -0.08124146320174763 0.5986878778988387 -1.159451999811416 -0.4421996452178861 1.195476369668386 -0.6552585705773434 -0.1830264429544414 -2.884151275926151 -0.2124283785906566 0.6489105614065491 -1.203498409153433 0.05013873585650264 -1.264606437870811 -3.411553632259110 -0.4548268137936828 -0.9670246239534749 -0.7153323152039744 -0.1830264429544378 
-0.4887642319223711 -0.01370476344356643 -0.1156135175214648 0.1004950381944736 -0.3006242143707612 -0.02901786669821222 -0.04930231324244880 7.701059051285172 -0.05186534262086213 0.06077068600373983 0.3573534522730711 -0.1928640955103715 0.05186082437625628 -0.1039701884447410 0.07225171965283525 -0.08352604474010056 0.01888416767132996 -1.309878111993692 -6.731176102517164 0.06845563780137309 -0.7929658762455631 0.01788120483494669 0.06301129039048413 -0.01209466412547496 -0.1039701884447411 
1.125523768903776 0.9191783225692680 -1.260709548864674 -1.021459114525765 0.9737739826162772 0.3573887462932447 0.2439103116267107 2.367835288134472 -0.1526372120370651 -0.5992174134378379 -1.365633445726408 0.03973625105195380 0.8748261006891295 -0.3339372080053565 -2.913184817209655 -0.2256435619664529 1.636769013919378 1.304661937559039 0.4712827771823922 -0.9513894448731284 4.194291786355487 0.1648050357437340 -0.6667718936011170 0.2641642999344419 -0.3339372080053552 
